digraph Tree {
node [shape=box, style="rounded", color="black", fontname="helvetica"] ;
edge [fontname="helvetica"] ;
0 [label="avg_metallic_valence <= 1.5\nsquared_error = 2.0\nsamples = 84\nvalue = 1.4"] ;
1 [label="range_MB_electonegativity <= 2.2\nsquared_error = 2.0\nsamples = 53\nvalue = 1.9"] ;
0 -> 1 [labeldistance=2.5, labelangle=45, headlabel="True"] ;
2 [label="range_valence_d <= 0.5\nsquared_error = 1.3\nsamples = 33\nvalue = 2.4"] ;
1 -> 2 ;
3 [label="min_outer_shell_electrons <= 1.5\nsquared_error = 0.4\nsamples = 13\nvalue = 3.5"] ;
2 -> 3 ;
4 [label="squared_error = 0.0\nsamples = 1\nvalue = 5.5"] ;
3 -> 4 ;
5 [label="squared_error = 0.2\nsamples = 12\nvalue = 3.4"] ;
3 -> 5 ;
6 [label="dev_specific_heat_(J/g_K)_ <= 0.3\nsquared_error = 0.6\nsamples = 20\nvalue = 1.7"] ;
2 -> 6 ;
7 [label="squared_error = 0.3\nsamples = 6\nvalue = 2.5"] ;
6 -> 7 ;
8 [label="squared_error = 0.3\nsamples = 14\nvalue = 1.3"] ;
6 -> 8 ;
9 [label="avg_heat_of_vaporization_(kJ/mol)_ <= 64.6\nsquared_error = 1.9\nsamples = 20\nvalue = 1.0"] ;
1 -> 9 ;
10 [label="sum_thermal_conductivity_(W/(m_K))_ <= 172.9\nsquared_error = 0.5\nsamples = 10\nvalue = 0.4"] ;
9 -> 10 ;
11 [label="squared_error = 0.0\nsamples = 8\nvalue = 0.1"] ;
10 -> 11 ;
12 [label="squared_error = 0.1\nsamples = 2\nvalue = 1.9"] ;
10 -> 12 ;
13 [label="dev_crystal_radius <= 0.1\nsquared_error = 2.3\nsamples = 10\nvalue = 1.9"] ;
9 -> 13 ;
14 [label="squared_error = 0.9\nsamples = 6\nvalue = 1.2"] ;
13 -> 14 ;
15 [label="squared_error = 0.5\nsamples = 4\nvalue = 3.9"] ;
13 -> 15 ;
16 [label="dev_Covalent_Radius <= 0.2\nsquared_error = 0.6\nsamples = 31\nvalue = 0.5"] ;
0 -> 16 [labeldistance=2.5, labelangle=-45, headlabel="False"] ;
17 [label="dev_Melting_point_(K) <= 712.2\nsquared_error = 0.0\nsamples = 2\nvalue = 2.0"] ;
16 -> 17 ;
18 [label="squared_error = 0.0\nsamples = 1\nvalue = 2.2"] ;
17 -> 18 ;
19 [label="squared_error = -0.0\nsamples = 1\nvalue = 1.8"] ;
17 -> 19 ;
20 [label="dev_crystal_radius <= 0.3\nsquared_error = 0.4\nsamples = 29\nvalue = 0.3"] ;
16 -> 20 ;
21 [label="avg_Atomic_Number <= 36.2\nsquared_error = 0.2\nsamples = 24\nvalue = 0.2"] ;
20 -> 21 ;
22 [label="squared_error = 0.2\nsamples = 22\nvalue = 0.1"] ;
21 -> 22 ;
23 [label="squared_error = 0.0\nsamples = 2\nvalue = 1.0"] ;
21 -> 23 ;
24 [label="sum_gilmor_number_of_valence_electron <= 10.5\nsquared_error = 0.4\nsamples = 5\nvalue = 1.3"] ;
20 -> 24 ;
25 [label="squared_error = 0.0\nsamples = 3\nvalue = 0.7"] ;
24 -> 25 ;
26 [label="squared_error = 0.1\nsamples = 2\nvalue = 2.0"] ;
24 -> 26 ;
}